kalman 0.21665 0.13451 0.137 0.52234 -0.52501 0.94522 0.36285 -0.27666 0.29868 -1.4787 -0.35477 0.34402 -0.45612 -0.23968 -0.45198 0.48043 -0.041058 -1.0081 0.011086 -0.59011 0.27942 0.44751 0.5322 0.47531 -0.24826 0.51591 -0.31084 -0.15225 -0.084329 -0.19742 0.26547 -0.44002 -0.2203 -0.66142 -0.27992 -0.53074 0.44509 -0.39477 0.28428 -0.74725 0.52701 -0.44984 -0.059164 -0.04306 0.14569 0.58987 0.17045 -0.40385 0.026989 0.22265 -0.267 0.36978 -0.33671 0.30891 -0.76013 -0.17875 -0.12718 0.38561 0.48891 -0.09847 0.087044 0.25782 0.0090075 -0.67226 0.11692 -0.25382 -0.23158 0.08102 0.033796 -0.56463 0.35894 -0.19628 -0.05586 -0.037673 -0.13014 -0.28762 -0.1342 -0.52847 0.10998 0.14039 -0.23047 0.68507 0.56404 0.41542 -0.092414 0.014918 1.001 0.052797 -0.10229 -0.64732 -0.55579 0.63878 0.065539 0.096879 0.51487 0.45987 -0.36141 0.73578 0.40076 -0.12462 0.34528 0.12069 -0.22359 0.49807 0.00943 -1.4929 0.49498 0.23665 -0.25449 0.29542 -0.16507 0.2167 0.53482 0.11668 0.019829 0.22015 -0.039082 -0.25823 -0.011983 0.19709 0.12731 -0.71952 0.15357 0.16054 -0.48465 -0.54528 -0.70981 0.20592 0.23598 0.01336 -0.13859 -0.012188 -0.627 -0.11938 0.1442 -0.50578 -0.21746 0.35051 -0.5961 0.0059771 0.55382 -0.053897 -0.43704 -0.29326 -0.012904 -0.27593 0.18526 0.077435 -0.08357 0.089048 0.65073 -0.94176 -0.67902 -0.20413 -0.57743 -0.38196 -0.22481 -0.38695 0.3296 -0.21947 0.066937 0.014374 0.09158 0.56891 0.62091 -0.071093 0.50358 0.005214 -0.29009 0.34421 0.5315 0.082016 0.20177 -0.42457 0.19823 0.33441 -0.011286 0.39709 0.046587 -0.26968 0.073452 -0.7528 0.00051739 -0.11339 0.31501 0.091144 -0.18267 -0.09323 -0.18767 -0.32164 -0.41729 -0.31558 -0.40405 -1.071 0.3205 0.22412 -0.43175 0.15744 0.11055 -0.3637 -0.0083439 -0.0072443 0.21485 -0.035288 -0.41539 -0.4667 -0.024575 0.28501 0.0077548 0.23942 0.0079116 0.43873 -0.60548 0.020102 -0.34339 -0.61122 0.45327 -0.39216 0.13616 0.46108 0.85042 1.2491 0.49186 -0.75289 -0.60912 0.55689 -0.26788 -0.76671 -0.28764 0.64451 -0.1284 -0.4503 -0.52121 -0.78408 -0.46428 -0.012547 0.47763 -0.16711 0.075795 -0.33658 -0.46687 -0.1147 -0.033251 0.14776 -0.75843 0.34531 0.19848 0.94783 1.3143 0.14205 0.076791 0.45203 -0.11127 -0.41119 -0.55288 -1.2691 0.38274 0.2051 -0.74986 -0.5934 -0.56331 -0.42016 0.58289 0.28922 0.26147 -0.26924 0.39248 -0.42915 -0.39928 0.13714 -0.37975 -0.31774 -0.24226 -0.015102 0.31577 -0.24254 -0.1983 -0.24532 0.30477 0.4639 -0.84215 0.1841 0.50893 0.36463 0.63113 0.10975 0.2413 -0.48796 -1.0189 -0.10808 0.5918 0.055753 -0.13718 0.29381 0.33108 -0.85531 -0.42609 0.4519 -0.2005 -0.11223
kalmia 0.078899 0.82085 0.12567 -0.33765 -0.12175 -0.06058 0.20183 0.19313 -0.7827 -1.5243 0.82439 -0.39913 -0.24545 0.34974 0.20909 0.32944 0.61797 -1.3869 -0.15368 0.40149 0.11923 -0.065818 -0.066132 -0.31344 0.099891 -0.70656 -0.22435 -0.46576 1.0373 0.43512 -0.0014606 -0.52691 0.11208 -0.047613 -0.59926 0.40263 0.033438 -0.10747 -0.78557 0.095095 0.27361 0.27225 -0.44739 -0.28645 -0.091507 -0.14183 1.0316 -0.38482 0.41903 0.026319 0.47421 0.15149 -0.36308 0.090788 0.9137 -0.23162 0.073991 0.072431 -0.36146 0.15591 -0.38574 -0.56504 -0.41478 0.18466 0.027207 -0.092209 -0.14768 -0.14723 -0.2121 -0.11847 -0.55002 0.18773 -0.45591 0.59972 0.39229 -0.62784 -0.30539 0.43705 -0.15051 -0.54722 0.10103 -0.24736 -0.079521 -0.12215 -0.16007 0.22951 0.93884 0.054121 -0.16248 -0.33011 0.27843 -0.17604 0.66176 -0.15932 -0.29757 0.3164 -0.10961 -0.46943 -0.32802 0.25739 0.051976 -0.19624 0.026232 -0.43473 -0.20813 -1.2391 -0.0019122 -0.39021 0.054678 -0.54114 -0.53525 0.8879 0.31828 0.24122 -0.46615 -0.011052 -0.12456 0.069198 0.28108 -0.32154 0.44831 0.11136 0.10358 0.41123 0.76203 -0.05342 0.21179 -0.0064496 0.0080947 0.18817 -0.52378 -0.52123 0.29926 0.24606 -0.59982 -0.49026 0.16801 0.033762 0.61014 -0.12444 0.82935 -0.20546 -0.61435 0.0034186 0.072191 0.22663 0.22342 0.38733 0.46563 0.48403 0.44954 -0.62199 0.28152 0.39109 0.14892 -0.1005 0.24817 -0.31305 0.37019 0.029721 -0.47434 -0.031111 -0.16012 0.44066 0.15456 -0.0049711 -0.14343 0.13728 -0.63438 -0.24843 -0.62733 0.8948 0.50657 0.26003 0.42331 0.1332 0.28856 -0.26696 -0.53702 0.040497 -0.14153 -0.16467 -0.74598 0.016958 -0.039186 -0.91252 -0.29281 -0.25009 0.52218 0.21753 0.13431 -0.31891 0.37705 0.23147 -0.12906 -0.20104 -0.2163 -0.35176 -0.0073476 0.097443 -0.27878 0.39725 -0.13426 0.18035 -0.080769 0.21059 -0.37524 0.13313 0.18056 -0.2343 -0.18046 0.84831 0.25425 0.23852 -0.45303 -0.25497 0.27497 0.4333 0.81072 -0.16978 0.27603 0.030125 -0.26506 -0.65567 -0.65907 0.024323 0.26816 0.00036716 -0.50001 -0.23391 -0.24702 -0.21389 0.21773 0.14481 0.16115 -0.10066 0.27785 0.13886 0.47729 -0.11041 -0.042457 -0.20427 -0.61847 -0.71543 -0.11068 -0.59247 0.11025 0.39925 0.45348 -0.77635 -0.47794 -0.066019 -0.37843 0.58065 0.044281 0.13415 0.074104 0.58504 0.16552 -0.3352 -0.10989 0.039196 0.12893 -0.5651 0.22909 0.38071 -0.25845 0.28003 -0.63454 -0.23111 -0.37256 0.16771 -0.41586 0.057415 0.077565 -0.4512 -0.10457 -0.15949 0.12155 -0.4984 -0.23583 -0.10763 -0.36815 -0.46934 0.21563 -0.7385 -0.53428 0.34838 -0.252 -0.27899 0.10626 -0.47129 -0.53895 -0.0076022 -0.30499 -0.0084365 0.50137 0.14653 0.28722 -0.086225
kalmuhi 0.11822 -0.56356 0.45085 0.29981 0.44593 0.0086226 -0.71666 -0.019521 -0.18885 -0.57041 0.64285 0.51505 -0.52505 0.21478 -0.076644 -0.22026 -0.24883 -1.7044 -0.25447 -0.5649 -0.21988 0.30078 0.096403 -0.33238 0.024751 0.66527 -1.0131 -0.16968 -0.17701 0.1297 0.030642 -0.35377 0.047354 -0.97638 -0.20567 0.57147 -0.69747 0.61719 0.74467 0.15433 -0.19316 -0.36487 0.59815 0.28592 0.77996 -0.052316 -0.21251 0.0022685 -0.33751 0.58083 -0.73003 -0.40982 -0.59872 0.40424 0.012256 0.11963 -0.83615 -0.75157 0.57151 0.12453 0.24461 -0.0752 0.65074 0.27128 -0.22628 0.25002 -0.52458 -0.22109 -0.6634 -0.32854 -0.57503 0.95443 -1.8206 0.029049 -0.40034 -0.2225 -0.72859 0.13498 -0.28627 0.030128 0.072228 -0.54343 -0.51337 -0.61443 -0.6011 0.77602 0.10361 -0.90219 0.10182 -0.64286 0.68221 0.60204 0.11825 0.48944 -0.66578 0.71823 -0.17145 0.078497 -0.54589 0.14518 -0.33286 0.90134 0.62609 0.28352 0.76475 -1.2222 0.45773 0.31507 0.40998 0.53938 -0.40861 0.35049 -0.14901 0.20766 -0.035283 0.82856 0.50667 -0.25076 -0.17492 -0.83376 -0.51987 0.6853 0.76537 0.34524 -0.13248 -0.10279 0.012849 0.34077 -0.14232 0.38393 -0.11506 -0.50392 0.46285 0.34061 -0.28284 0.23424 1.0195 -0.40239 0.10539 0.48101 0.22497 0.71685 -0.32675 -1.1108 -0.23468 -0.32012 0.11879 -1.0429 0.14661 -0.18975 -1.2053 -0.72711 0.95059 -0.075694 0.68485 0.66333 0.16829 1.1975 -0.89035 0.33321 -0.76603 0.097824 0.52828 -0.039594 0.88792 0.15391 -0.46784 0.57557 -0.14392 -0.87654 -0.025562 -0.65377 0.42625 0.13402 0.1533 -0.1123 0.42989 -0.46084 -0.52985 -0.38753 -0.69766 -0.59509 0.9245 -0.069825 0.041894 0.95345 0.22099 -0.097591 -0.87028 -0.41271 0.53538 0.93744 -0.12563 0.39687 -0.43657 0.03879 0.15968 -0.46148 0.97763 -0.53982 -0.22703 -0.21037 -0.032843 -0.54826 -0.093099 -0.11475 -0.019885 0.41965 -0.67144 -0.7574 0.13114 0.24847 0.094621 -0.2136 -0.29994 -0.46136 -0.69865 -0.65719 0.46068 -0.36662 1.0603 -0.74185 -0.24814 0.3981 -0.04279 0.65167 -0.24683 0.040947 0.010912 -0.25338 -0.22755 -0.70326 -0.42037 0.085424 -0.55201 -0.022463 -0.076295 0.55365 0.37789 0.27028 -0.031304 0.14211 0.80663 -0.036389 -0.53048 0.53172 0.15278 0.39651 0.053008 -0.55538 -0.13111 -0.36119 0.71654 0.41325 0.17293 -0.239 -0.46909 -0.06466 -1.2027 -0.68346 0.22712 -0.57394 -0.85922 -0.047599 -1.1837 -0.25003 0.35913 0.33499 -0.51582 0.66773 0.74402 -0.63821 0.26783 -0.44689 -0.45893 -0.11812 0.50351 0.96649 0.44166 -0.52927 0.41707 0.35916 -0.45062 0.6254 -0.59537 -0.16779 -0.34163 0.85612 0.17414 -0.56146 0.022092 -0.010185 -0.39537 0.0833 -0.029665 0.11666 -0.63777 0.5853 -0.03842 -0.71717
kalmyk 0.86046 -0.70238 -0.041206 0.39503 -0.021283 0.51201 -0.14112 -0.44147 0.37188 -0.70782 0.2956 -0.12099 -0.30285 -0.1081 0.32998 0.0017175 0.30628 -1.7136 -0.27315 -0.25296 -0.4909 -0.26765 0.62001 0.43547 -0.43031 -0.11106 0.86509 0.1934 -1.1792 0.16086 0.2055 -0.96038 0.79 0.026684 0.25673 0.35178 -0.20863 -0.51174 0.68317 0.11702 0.023674 0.20591 -0.30902 0.78144 0.52398 -0.31063 1.0139 -0.058753 0.28371 -0.48997 0.62855 0.17959 -0.1695 -0.09228 -0.68215 0.089596 0.88835 -0.084272 -0.62908 0.17145 0.34832 0.095119 0.26463 0.463 0.014672 0.094938 0.3487 0.2519 -0.080467 0.18266 -0.28338 0.4257 -0.33697 -0.86762 0.46096 -0.36004 -0.35625 0.71713 -0.29951 -0.24465 0.43907 -0.13669 0.17169 0.18661 -0.24886 0.6072 -0.36237 -0.22158 -0.72461 -0.90336 -0.095999 -0.83992 0.10851 0.58182 0.0083141 1.0986 -0.40803 -0.53298 -0.58885 -0.42714 -0.32249 0.16249 0.83949 0.27494 0.59095 -0.80286 -0.080935 -0.46199 0.20332 -0.34541 0.06106 -0.025099 0.48124 -0.39974 -0.33971 -0.018108 0.60986 -0.54834 -0.45996 0.088808 -0.73028 -0.16076 0.10694 0.44015 -0.57606 0.51042 0.18003 0.11773 -0.18751 0.097287 -0.96872 -0.19206 -0.076414 0.24515 -0.30237 -0.90674 0.62707 0.10899 0.37927 0.20881 0.84949 0.036217 -0.50183 -0.017609 0.23996 -1.0652 0.31107 -0.39087 0.24778 -0.044708 -0.65462 0.10414 -0.39898 0.32558 -0.51278 0.84158 1.0977 -0.40878 0.17407 0.13844 0.15859 0.79489 0.0072384 0.293 0.36639 -0.095638 -0.62898 0.36043 0.37182 -0.8922 -0.72431 -0.0098941 0.32106 0.56288 -0.090173 -0.77943 0.35184 0.060131 0.011199 -0.13486 -0.27388 -0.29493 -0.65406 -0.59233 -0.84035 0.47059 -0.74737 -0.35121 0.93956 -0.1968 0.80191 0.50127 0.029461 -0.72964 0.052493 -0.40291 -0.1284 -0.29647 0.16794 -0.72986 0.010064 0.55421 -0.64527 -0.73664 -0.07941 0.16423 0.12082 0.13031 -0.24243 0.78411 0.27778 0.36765 0.90639 0.041093 -0.041105 -0.56464 -0.49164 0.040203 0.73523 -0.57351 -0.34089 0.31717 0.17981 -0.70227 -1.3967 0.15874 1.2306 0.22079 -0.25564 0.41737 0.3861 0.18112 -0.30355 0.080793 0.22164 0.73794 -0.27687 -0.095214 0.48136 -0.87079 -0.022735 0.9317 0.63088 -0.099883 0.39135 0.046065 -0.18797 -0.14171 -0.2898 -0.41915 0.39197 0.36863 0.026564 -0.31853 0.33274 0.14405 -0.29208 0.54233 -0.037379 -0.48183 -0.32532 -0.023322 -0.31848 0.26752 -0.24035 0.28924 -0.19049 0.66515 -0.68868 0.24476 0.2182 0.28707 0.060228 0.021601 -0.40239 -0.1125 -0.16896 0.0085262 0.13814 -0.69242 -0.42355 -0.056066 0.67432 -0.37627 0.11661 -0.244 -0.80066 -0.1825 -0.44085 -0.72226 0.10132 -0.6683 0.11776 0.20918 -0.49863 -0.18902 -0.2763 0.66306 -0.081353 -0.72145
kalonji 0.32579 -0.046335 0.81698 0.11176 -0.96115 0.59859 -0.58496 -0.51851 -0.22758 -1.1863 0.28792 0.47356 -0.47554 -0.57863 -0.24301 0.29684 0.27171 -1.5678 0.27884 -0.2427 -0.25673 -0.60294 0.67628 -0.76203 0.64711 -1.1793 0.05251 0.6098 0.57736 0.041378 -0.21846 0.20647 0.44299 0.234 -0.41672 -0.55656 0.040175 0.93849 -0.54425 0.084925 0.25843 -0.4706 -0.48747 0.5679 -0.472 0.059719 0.61942 0.037965 0.25601 -0.31439 0.33846 -0.0535 0.3644 0.3266 -0.45143 0.039387 -0.12487 -0.27058 0.028816 -0.72665 -0.31023 -0.21077 -0.26566 -0.74797 -0.1158 -0.12346 -0.051287 -0.31504 0.55332 -0.73706 0.063383 0.19839 -0.15241 0.4313 -0.60395 -0.18735 0.16491 -0.31613 -0.60669 -0.10333 -0.43353 -0.13559 -0.37541 0.45953 0.17642 -0.3752 1.498 -0.33036 -0.64319 -0.623 0.2228 -0.26573 0.64357 0.31124 -0.73201 0.51856 -0.62944 -0.065432 0.2645 -0.35239 -0.033715 0.17412 0.61951 -0.066704 0.19684 -0.98039 0.63997 -0.33424 0.82233 0.50123 -0.42629 0.17679 -0.26083 -0.20551 -0.12622 -0.19176 0.075454 1.0043 -0.038714 -0.39871 -0.37436 -0.25345 0.13248 -0.27142 -0.25305 -0.10558 -0.16611 0.22961 0.59705 -0.11321 -0.46529 -0.60328 -0.061813 -0.19021 -1.663 -0.48819 0.72859 -0.75738 -0.098444 0.83638 0.27063 -0.30723 0.10994 -0.15558 0.20643 -0.076009 0.14104 0.63974 0.45748 0.0082301 -0.21486 -0.80757 -0.2182 -0.51323 -0.89473 0.30368 0.18746 -0.60258 0.078446 1.1343 0.26621 0.70856 -1.0399 0.43354 0.233 -0.328 -0.31832 -0.17722 -0.17342 -0.041244 0.39162 -0.29616 0.48921 -0.29692 -0.13758 0.052388 -0.00041487 0.031892 -0.072392 0.026293 -0.27439 0.45075 0.20394 0.0046712 0.51235 0.35096 -0.47343 0.21465 -0.02181 0.0083692 0.30623 -0.33995 0.67025 -0.8797 -0.22116 0.082906 -0.19784 -0.61467 0.5061 0.032282 0.44849 -0.94285 -0.38602 -0.0016676 -0.15886 -0.73046 0.64226 0.25497 -0.14192 1.1311 -0.55326 1.2687 0.58212 -0.44836 -0.87816 -0.60582 -0.28973 -0.16503 0.78232 -0.53815 -0.59498 0.79131 1.1843 -0.73907 -0.44991 0.081417 0.73553 -0.056656 -0.8808 -0.37635 0.96788 -0.40434 -0.52509 -0.12457 -0.38064 -0.41799 0.083856 0.25355 -0.15025 0.049593 -0.16308 -0.41513 -0.70007 -0.3797 0.60195 -0.1226 -0.51626 -0.0808 -0.076093 0.31796 0.65209 -0.13716 0.43293 -0.021216 -1.0792 -0.50213 0.46967 -0.035539 -0.55791 0.74531 0.26521 -0.75981 0.69684 0.019372 -0.62792 -0.63952 0.31615 -0.25994 -0.2951 0.1421 1.1561 -0.47966 0.44225 0.55755 0.80861 0.11908 -0.73578 -0.087631 1.279 -0.1476 -0.036458 -0.10102 -0.57558 -0.50727 -0.86666 0.75714 1.1952 -0.15571 -0.15548 -0.21003 0.1589 -0.0706 -0.23325 -0.085572 -0.13972 0.25587 0.65723 0.24998 -0.086626 -0.40302
kalos 0.45137 0.57419 -0.303 0.28155 0.58392 0.34007 0.81795 -0.38757 -0.65143 -1.5027 0.32657 -0.067389 0.21446 0.53684 -0.31176 0.30216 0.58494 -0.56612 0.80822 -0.3444 0.24283 -0.31098 0.93855 0.99698 -0.011069 0.07974 0.34291 0.51049 -0.31278 0.029956 0.077705 -0.37917 -0.36643 0.30711 0.36681 -0.083087 0.039327 0.32712 -1.075 0.34492 0.39884 -0.30718 -0.33473 0.32673 0.65168 -0.016751 -0.17729 -0.069743 0.050797 0.31432 -0.088286 0.040764 -0.085019 0.032955 0.95861 -0.022263 -0.15801 1.4171 -0.68382 0.084931 -0.48469 -0.051425 -0.011661 0.36194 -0.20597 -0.57361 0.086848 -0.29814 -0.074252 0.31019 -0.18713 0.090134 -0.43142 0.066609 0.38118 -0.25024 -0.41637 -0.94652 -0.041477 -0.039452 -0.13426 -0.030675 0.63772 0.83465 0.3358 -0.046019 1.389 -1.177 -0.43974 -0.65184 0.93192 -0.11551 -0.041714 0.01554 0.30414 0.68069 0.36844 -0.6982 0.17944 -0.22921 -0.1452 0.11111 -0.41827 0.94506 0.033131 -1.2188 -0.14534 0.29563 0.15195 -0.67606 -0.2079 -0.10728 -0.43444 -0.089403 -1.3401 -0.27966 -0.30141 0.10107 0.44518 -0.27935 0.88534 0.34996 -0.37775 0.1354 -0.78503 -0.12455 0.57187 0.5938 -0.31897 0.60228 -0.4015 0.32284 -0.10959 -0.18041 0.46595 0.61941 0.10189 -0.94648 0.45131 0.33804 0.75984 -0.14382 -0.29261 -0.56396 0.022471 -0.6744 0.37612 0.66439 0.2435 -0.050754 -0.052503 -0.65152 0.47978 0.097269 0.81929 0.24147 0.57107 -0.15088 -0.24581 0.095843 -0.48215 -0.29267 0.096985 0.53197 0.6064 -0.12952 -0.93009 -0.028347 -0.29391 -0.2771 -0.63112 0.081352 0.51779 0.2771 -0.6971 -0.60016 -0.075773 0.22663 -1.1323 -0.16037 -0.066363 -0.58024 -0.74667 -0.16006 -0.57297 -0.079062 0.035583 -0.29945 0.93495 -0.52023 -0.36551 0.12244 -0.20433 0.038611 0.084921 -0.25156 0.21902 0.034052 1.2045 0.57072 0.051522 -0.48918 0.27579 0.2958 -0.107 -0.51985 -0.13155 0.030219 -0.21745 -0.064565 0.010971 0.45459 -0.035288 0.59283 -0.79865 0.28975 1.2662 0.051089 0.30054 -0.84997 -0.31436 0.15138 0.76172 0.18203 -0.23274 0.49508 0.31062 -0.02133 -0.17191 -0.27267 -0.64198 -1.8391 -0.65774 0.612 0.10172 -0.13999 0.48311 0.65873 -0.13712 -0.62408 0.48313 0.32248 -0.089535 -0.63127 0.0092644 -0.014258 -0.023153 -0.64359 0.6135 -0.068037 -0.74219 0.33696 -0.13431 -0.045411 0.30829 0.357 0.50407 0.38034 -0.27546 0.28954 -0.020678 -0.2213 -0.41034 0.2407 -0.36543 -0.0080126 0.36617 0.24398 -0.66691 0.61783 -0.4277 -0.27096 0.59906 0.76155 -0.10566 -0.1184 0.68689 0.30249 0.74907 -0.061201 -0.35613 -0.48251 -0.15878 -0.667 0.40233 -0.29657 -1.3063 0.34124 -0.030158 0.66854 -0.31748 -1.3411 0.05073 -0.33918 0.34239 -0.47804 0.20344 0.86142 -0.67791 -0.65739
kalpakjian -0.71976 -0.14347 -0.58741 0.95866 0.27149 1.2627 0.22813 -0.4652 0.26856 -0.93701 -0.031968 -0.92002 0.65777 0.22664 -0.28469 0.87088 1.1838 -0.86724 0.96705 0.45044 -0.62442 0.19406 0.33413 -0.035846 0.60715 -0.34464 -0.10875 0.27742 -1.0422 -0.22437 0.047621 -0.02358 0.29996 0.0088531 0.081172 0.59785 -1.0354 -0.3033 -0.2478 0.79021 -0.095844 -0.73645 -0.71792 -1.2324 -0.22388 0.22719 0.01351 0.35368 -0.087894 -0.29287 0.32502 0.030198 0.66536 0.84746 0.72643 0.22245 0.3178 -0.26678 -0.13614 0.25865 -0.3984 -0.55824 -0.48761 0.392 -1.8809 0.47254 -0.83684 0.15971 -0.46877 0.11363 0.056637 -0.60435 -0.69797 -0.19471 -1.0514 -0.028008 0.62577 -0.2932 0.088015 -0.27532 -0.72779 -0.10454 0.0095635 -0.2845 -1.1084 1.3267 0.62953 0.36859 0.034937 -0.3699 0.83071 -0.11735 -0.037932 -0.26503 -0.56669 0.8781 0.055496 -0.33285 -0.11721 0.026529 0.49716 -0.17681 0.3354 -0.30053 -0.12915 0.039904 -0.30564 0.054148 0.32174 -0.33008 0.10136 0.072393 0.38829 -1.458 -0.29484 -0.17135 -0.17752 -0.0084317 -0.16291 -0.52924 0.49971 -0.20758 0.15078 -0.57974 -0.13746 -1.299 0.17449 0.39198 -0.81229 0.036712 -0.19668 0.081447 -0.77848 -0.58541 -0.35599 0.24033 -0.28592 -0.14099 -0.84301 -0.2602 1.4816 0.46381 0.011393 -0.091848 0.45603 -0.048286 0.60135 0.021866 -0.23973 0.56098 -0.62814 0.5152 0.40781 -0.13189 -0.068241 0.80276 -0.84073 -0.54661 0.39875 0.26718 0.42241 -0.041914 1.0462 0.53965 0.64021 -0.47288 -0.65068 0.46785 0.42978 0.013682 0.30312 -0.11957 0.32183 -0.72741 -0.17225 0.025733 -0.94535 -0.1167 0.27079 0.17668 1.0218 0.083403 0.23722 -0.24157 0.5247 -0.29416 -0.13836 -0.40202 -0.25628 0.59952 0.078588 -0.2052 -1.0153 0.25939 -0.58748 -0.73939 0.48416 0.32385 -0.3097 -0.7114 -0.38561 -0.25803 -0.1458 -0.22658 0.471 -1.0477 -0.58933 -0.034599 0.11667 0.27971 -0.70099 -0.20752 0.16787 0.046026 -0.053982 -1.1214 -0.74395 -1.1688 1.0022 -0.14477 0.56284 -0.62588 0.53403 0.0042565 0.045615 -0.39688 0.041711 -0.024584 -0.90582 -0.45072 -0.71277 1.3821 0.24035 -0.40855 0.27844 -0.34851 -0.6791 0.09157 0.060127 0.071572 -0.28059 0.24006 -0.38919 0.59976 -0.039365 -0.093484 -0.22469 0.44871 0.1493 -0.092652 -0.78449 -0.11797 0.24463 0.51524 0.4847 0.04892 0.24107 0.25336 -0.21349 -0.23116 -0.23931 -0.52769 0.45233 -0.046177 -0.49776 0.041813 0.2875 -0.80918 -0.81409 0.89542 0.22906 0.31085 0.44328 0.66709 0.3515 0.49952 -0.18141 -0.39783 -0.10247 -0.43729 0.24076 -0.32313 0.28334 0.0012813 -0.73464 0.09228 -0.28484 -0.6094 -0.77882 -0.70648 0.011357 0.32425 -0.57196 0.58014 -0.44298 0.575 -0.71944 0.25783 -0.1971 -0.59994
kalpan 0.38126 -1.5263 -0.41679 0.77728 0.26399 0.29907 1.0188 -0.055517 -0.87904 -1.3526 0.30468 0.13637 0.07611 1.0902 0.77584 -0.22519 1.3262 -1.3766 0.45467 -0.084936 -0.0080712 -0.51712 -0.38855 1.0529 0.71846 0.47233 0.43395 0.067865 0.43992 0.065527 0.42043 0.41854 -0.44908 0.46567 -0.43868 1.0423 -0.30106 -0.45076 -0.025815 -0.1927 0.34285 0.72113 -0.13001 -0.36198 -0.22707 -0.15486 0.034774 0.12083 0.17093 -0.46815 1.2924 0.55357 -0.53132 0.22897 0.14567 -0.65682 -0.23412 -0.58143 0.30481 0.63459 0.44205 -0.15149 -0.11994 0.47255 -0.52422 -0.10062 -0.82055 -0.11486 0.6002 0.293 -0.61575 0.025375 0.060043 0.084209 0.4228 0.29387 -0.5479 1.2167 -0.11943 -0.013366 0.17087 -0.75148 0.1588 0.64602 -0.26519 0.45113 0.46589 0.50099 -0.98192 -0.28309 1.3209 -0.46961 -0.45953 0.87771 -0.61669 0.33093 0.49301 -0.58357 0.97309 -0.30203 0.2418 -1.3846 -0.12202 0.40161 1.0718 -0.63678 -1.0342 0.2974 -0.27611 0.038578 0.051391 1.2474 -0.64773 -0.35706 -0.76411 -0.66327 0.035109 0.81906 0.072032 0.023862 0.28618 -1.0508 0.30883 0.68414 -0.36808 -0.10325 -0.8475 0.16421 -0.39395 -0.44057 -0.98632 -0.64098 -0.18711 -0.21414 -0.51584 -0.033517 -0.038939 -0.1082 -1.0291 0.11766 1.1166 -0.34557 -0.37008 -0.0073595 0.53443 -0.16132 0.53595 0.31717 0.14437 -0.14177 -0.23084 0.80567 0.55227 0.049087 -0.96793 -0.034322 -0.21767 -0.27971 -0.56652 0.35276 -0.11175 0.040439 -0.74826 0.1233 -0.16029 0.49006 0.20706 -0.39829 0.75723 -0.32093 0.34475 0.70211 0.26171 -0.50149 0.14595 0.63738 0.27948 -0.18434 -0.39939 0.80289 0.020714 -0.036826 0.2011 0.27004 0.27455 -0.45826 -0.20377 -0.10988 0.0072793 0.66735 0.65575 -0.20068 -0.12245 0.28309 0.39871 -0.92292 0.71842 -0.59591 0.87651 -0.84742 0.3051 0.70303 0.18919 0.08562 0.20698 -0.32644 -0.69325 0.29757 0.11609 -0.17217 -0.03629 0.42874 -0.60159 0.84268 0.20565 -0.81171 -0.80823 0.39727 1.5759 -0.21084 -0.52497 -0.29577 -0.10116 -0.3711 -0.048785 -0.11315 -1.1064 -0.75684 -0.24436 -0.19591 -0.21855 -0.42225 -0.069798 -1.6242 -0.93798 0.64416 0.54092 -0.41464 0.2872 -0.014721 -0.2846 -0.16456 0.71275 -0.45678 0.62908 -0.73205 -0.60583 0.093904 0.47349 0.21711 0.060262 -0.088927 0.78576 0.24837 0.057817 -0.81935 -0.36896 1.0565 -0.66052 -0.23812 -0.27097 -0.85386 -0.17791 0.35037 -0.18989 0.11081 -1.1049 -0.32209 -1.1191 0.20501 0.70692 -0.058457 0.2967 0.67135 0.23364 -0.39622 0.46439 0.45135 0.29706 -0.50479 0.026962 -0.12047 -0.51844 -0.049891 -0.44616 0.69693 -0.29111 0.29237 0.18367 0.32814 -0.75961 0.23394 -0.2338 0.44023 -0.2325 0.084704 -0.37066 0.93118 -0.8885 -0.11174
kalpana 0.097763 0.15795 0.087006 0.65645 -0.0044138 0.27351 0.40354 -0.48582 -0.39605 -1.556 0.30789 -0.63912 -0.44171 -0.64713 -0.15707 0.036642 0.37703 -1.3747 0.23215 0.37477 -0.16415 0.92731 0.12164 -0.18589 0.29901 -0.1282 0.62118 0.37046 -0.52136 -0.025723 0.38331 -0.72284 -0.56314 0.022236 -0.48346 0.027484 -0.021685 -0.13896 -0.41595 -0.05837 0.1514 -0.39413 0.020474 0.094713 -0.17687 0.56569 0.036213 0.17596 -0.12881 0.19047 0.35936 0.071989 -0.016025 -0.41481 -0.32344 0.086449 0.25587 -0.17451 -0.53175 -0.34858 -0.19358 -0.3644 -0.14403 -0.5198 -0.43873 -0.2231 0.25355 0.74217 0.7766 -0.42677 -0.11555 0.31126 -0.78672 -0.45193 -0.066794 -0.49259 -0.12397 0.01213 0.30212 0.066901 0.19281 -0.70419 0.071293 0.40156 0.040833 -0.070081 0.99035 -0.50405 -0.37381 0.032893 -0.80604 0.23259 -0.3587 0.25727 0.2175 0.82148 0.26999 -0.030982 -0.46485 -0.67161 0.16352 -0.30616 0.19104 0.2059 0.19145 -0.84472 -0.26578 -0.63442 -0.2293 -0.06101 -0.064326 -0.089702 0.18827 -0.37111 0.34758 -0.44141 0.73961 0.47958 0.13547 -0.5303 0.2192 0.21171 -0.36063 0.19124 -0.18985 0.37931 0.15956 -0.18625 0.36365 -0.19715 0.12052 -0.41405 0.52139 -0.34331 -0.12387 0.31848 0.69676 1.0442 0.021422 -0.22432 0.51505 0.26333 -0.15301 0.12092 -0.51094 0.40674 0.54372 0.14881 -0.1059 -0.15209 -0.2778 -0.036709 -0.22317 0.18855 -0.1736 -0.057325 0.36181 0.13915 0.65362 0.090343 0.14403 -0.80782 0.4516 0.1239 0.1494 -0.026599 -0.18143 -0.39395 0.30693 -0.28859 -0.0029475 -0.29231 -0.19508 -0.36628 0.24359 0.089506 -0.24471 -0.19404 -0.401 0.16736 -0.41056 0.18977 0.18884 -0.35475 -0.11807 0.65627 0.10771 0.033862 0.22203 -0.29721 0.34892 0.19789 -0.46162 -0.092324 -0.39276 -0.30092 0.11535 0.79352 0.26257 0.066643 -0.083602 0.0078576 0.23198 0.28427 -0.32156 0.50098 0.32222 0.19572 0.28339 0.15084 0.018514 0.52903 0.29036 -0.059463 -0.40434 -0.51039 0.060032 -0.18359 0.76616 -0.71136 -0.10798 0.11939 0.59184 -0.72343 -0.091484 -0.19924 -0.38692 0.26707 -0.8535 -0.44789 -0.23438 -0.14437 -0.65494 0.30027 0.10263 0.42598 -0.68942 0.40023 -0.39565 -0.092177 -0.20473 0.027662 -0.23301 0.38691 0.015718 -0.2959 0.13542 0.3835 0.49783 -0.46495 -0.17069 1.0258 -0.79168 -0.10355 -0.020083 -0.040234 -0.18115 0.0040013 -0.3896 -0.27699 0.27758 -0.59935 0.1149 -0.47805 0.15513 0.6089 -0.36444 0.94785 -0.73302 0.34314 -0.33075 0.20044 0.11896 -0.11894 -0.045418 -0.48716 -0.23509 0.050019 0.9753 -0.064606 -0.033913 -0.21315 -0.41882 -0.12937 -0.1071 0.079221 0.042095 -0.0019961 -0.029767 0.072477 0.90196 0.38488 0.015559 -0.52124 0.34023 -0.12463 -0.36999 0.57432 -0.54088 0.57228
kalpataru -0.21933 -0.22471 -0.20297 -0.33498 0.48262 0.1882 0.012078 0.5671 -0.7397 -1.4568 -0.46063 -0.74168 0.11362 -0.27057 -0.15638 0.30683 0.65708 -1.2392 0.40328 0.1235 -0.57833 0.10143 -0.27509 0.28462 0.27687 -0.0099589 0.72364 -0.59643 0.3704 -0.51951 0.25436 -0.4182 -0.95826 0.75123 0.13949 0.63486 -0.24443 -0.21888 -0.70158 0.14338 0.20096 -0.14888 0.18381 -0.17223 0.91372 -0.57282 -0.19555 -0.12993 -0.46897 -0.18112 0.56515 -0.42231 0.70959 0.81628 -0.18444 -0.48623 0.071098 -0.025058 -0.04665 -0.13821 -0.19618 -0.23806 -0.2282 -0.86694 0.10059 -0.45179 0.24859 -0.026023 -0.60477 -0.26837 -0.083855 -0.39257 0.18277 -0.53832 -0.51365 -0.028072 -0.50424 0.60638 -0.040528 -0.2923 -0.12801 0.5813 0.59572 0.65214 0.13465 0.5837 0.12923 0.90204 -0.10935 -0.2371 -0.13763 0.11637 0.32096 -0.2755 -0.018872 0.62762 0.43042 0.070333 -0.11393 -0.077723 -0.53217 -0.0022548 0.84068 -0.22042 0.18426 -0.52685 -0.25096 1.3116 -0.71566 -0.40236 -0.36594 0.78975 0.10842 -0.037727 -0.027006 -0.055458 -0.48673 0.64842 0.3899 -0.26617 0.77022 -0.066047 -0.24481 0.29651 -0.062517 -0.13918 0.32059 0.038507 -0.047373 0.29922 0.59278 0.25515 -0.43903 -0.63253 0.31231 0.18295 -0.078147 0.6789 0.56822 0.6104 1.4513 0.57759 -1.2117 0.17363 0.28556 0.46674 -0.032948 -0.22147 -0.42452 -0.49001 -0.21819 0.23588 -0.15964 0.097639 -0.30506 -0.037576 0.1976 0.19954 -0.067935 0.32571 0.45959 -0.18376 0.21914 -0.25751 0.4062 -0.1452 -0.76695 0.091492 -0.14667 -1.0377 -0.26303 0.15085 -0.29627 0.40051 0.22263 -0.79008 0.31193 -0.58999 -0.98818 -0.34997 -0.026291 -0.0016748 0.13725 -0.14505 -0.37105 0.48935 0.29049 -0.80153 0.28458 0.25093 0.28376 -0.33427 -0.37415 0.27909 -0.32652 -0.14745 -0.63616 0.0038463 -0.43292 0.018271 -0.034869 0.1961 -0.51038 -0.2735 0.082363 0.17386 -0.53839 0.3164 -0.32165 -0.43405 -0.18231 0.73418 0.51646 1.1464 0.22975 -0.56296 0.3707 -0.82288 1.483 0.075803 0.15408 0.067873 0.4076 0.52619 -0.041955 -0.032149 0.90171 0.64045 -1.1908 -0.68903 0.17769 -0.24495 -0.16092 -0.62971 -0.60791 -0.70665 -0.67528 -0.0045122 0.31465 -0.0096388 -0.22011 0.48152 0.17717 0.1717 -0.33851 -0.065551 0.60741 0.59257 0.14745 0.68973 -0.25624 -0.22523 0.92142 -0.024882 0.66499 0.36377 0.49096 0.33793 0.057191 -0.93323 0.30523 0.041333 0.21598 0.88251 0.81031 -0.62978 0.43098 0.076622 -0.080841 0.51481 0.29832 -0.3284 -0.78355 0.82165 -0.40716 -0.35234 0.44306 0.36477 -0.054202 0.18053 -0.056485 -0.5739 -0.097372 0.32782 0.15093 -0.087657 0.010808 -0.39811 -0.31208 -0.33142 0.091474 0.47092 -0.34661 0.68655 -0.059477 0.43602 0.10084 0.03525 0.012623 0.33412
