29 100
发音 -0.20668 -0.70124 -0.12502 0.093913 -0.75126 0.088679 -0.69396 0.30434 -0.1646 -0.22471 -0.63375 -0.15971 -1.1047 -0.46772 -0.5579 -0.99226 0.32275 0.45039 0.029264 0.22957 0.17357 0.12321 0.934 -0.41952 0.32701 0.50545 0.43577 0.062676 -0.2236 -0.15681 0.27905 0.36897 -0.20463 -0.14185 -0.20233 0.17028 -0.40605 1.2569 -0.064502 -0.62121 -0.042513 0.9644 -0.7006 0.011511 -0.307 -0.54292 0.50156 -0.1303 -0.039705 -0.071095 -0.22354 0.51664 -0.6829 0.30904 -0.60835 0.78048 0.20497 0.099745 0.83065 0.040226 0.23592 -0.30735 0.2234 -0.35246 0.53001 0.20196 -0.13187 -0.79546 0.37145 -0.34325 -0.029127 -0.081869 0.067182 0.16978 0.82691 -0.2898 1.2801 0.74229 0.86902 -0.26409 0.48509 0.090713 -0.12439 -0.012783 -0.36025 -0.66943 -0.33557 -0.077891 -0.58539 -0.15605 0.35059 -0.64692 -0.14714 0.40271 -1.0217 -0.36478 0.35397 0.19087 -0.19853 -0.23326
劫走 -0.32423 -0.66209 0.028134 0.23132 -0.22178 -0.32542 -0.4568 -0.82956 0.55158 0.37293 0.52719 -0.82211 -0.38898 -0.22203 -0.30765 -0.77186 -0.032237 0.36353 -0.34289 0.021159 -0.078427 -0.46226 0.23565 -0.48415 0.36629 -0.30635 0.43505 -0.25155 0.64022 -0.55904 -0.29714 0.57569 -0.364 -0.1797 0.33897 1.0529 -0.15464 -0.19996 0.13532 -0.28786 0.47869 -0.84273 -0.18487 -0.31334 0.55852 0.072239 1.2145 0.42777 -0.32366 0.3193 -0.026811 0.52763 -0.30315 -0.088794 0.1509 -0.47456 0.16713 -0.54409 -0.37032 0.1264 0.085657 -0.0056639 0.14714 -0.13775 -0.010649 0.26179 -0.86539 -0.18427 0.089383 0.41762 -0.1428 -0.12399 -0.11573 0.12599 -0.13542 0.34219 -0.0024948 -0.17288 -0.45748 0.62522 -0.30644 -0.22373 0.085081 0.39867 0.35714 0.74347 0.10229 -0.23612 -0.88872 0.23142 0.17194 -0.41192 -0.087358 -1.1224 0.32896 -0.36207 -0.27263 -0.42976 0.53061 1.2076
蓝洁瑛 0.096866 0.50184 0.19561 -0.046367 -0.060622 -0.10931 -0.21777 -0.0022065 0.17863 -0.71587 0.17895 -0.74058 0.093917 -0.22773 -0.16613 -0.72629 -0.041544 0.67061 -0.20938 -0.031795 -0.25218 -0.11783 0.27068 -0.4454 -0.048344 -0.46652 -0.80813 0.14541 0.46918 0.081556 0.74356 -0.37614 -0.71153 0.31659 -0.25081 0.34331 0.34324 0.2047 -0.15232 -0.77054 0.71127 0.10348 -0.10448 -0.10077 0.77385 0.22682 0.025108 -0.07954 0.056242 -0.48907 0.56902 0.17951 0.28007 0.29266 -0.16938 -0.12476 0.19016 0.062008 1.0507 0.26689 0.17789 -0.099682 0.635 0.069158 0.08336 -0.18068 -0.122 -0.47464 -0.19342 -0.10085 0.19365 -0.08713 0.20373 -0.47366 -0.22174 0.52806 0.38384 -0.27942 0.071131 -0.42603 -0.64829 -0.49765 0.1891 0.14444 0.51178 0.1346 -0.72724 -0.20371 -0.35539 -0.68047 0.46737 0.031471 0.30314 -0.78887 -0.25807 -0.58848 -0.16417 -0.13274 -0.030082 0.43703
飞行 -0.63521 -0.20774 0.27297 0.51012 -0.42964 -0.04862 0.13424 -0.48076 0.34036 -0.20257 0.12309 -0.26685 0.026284 -0.2852 -0.011317 -0.68731 0.53177 0.91938 0.21499 -0.52161 -0.2642 -0.27977 0.052633 -0.23157 0.30356 -0.087706 0.31881 -0.07316 -0.38624 -0.77698 0.68094 0.76249 -0.12686 -0.13109 0.20136 -0.50691 0.063743 -0.79319 0.072296 -0.7091 0.72615 -0.021343 0.43112 0.34715 0.98273 -0.11114 0.35165 -0.054899 -0.9631 -0.076681 -0.17768 0.31263 -0.58186 0.41537 -0.647 -0.82614 0.32733 -0.90088 1.0285 0.44373 -0.0068754 0.42905 0.52115 0.30205 0.0045949 -0.30617 -0.32081 0.02187 -0.7289 0.29764 -0.39195 -0.43664 -0.08678 -0.33519 0.24679 -0.4069 0.29115 0.18514 0.33965 -0.0073659 1.1017 0.018072 0.005374 -0.18018 -0.38055 0.28651 -0.3067 0.10923 -0.61337 0.13459 0.28533 -0.016298 -0.22448 0.89769 -0.39082 0.33577 -0.30042 0.18379 0.47069 0.37206
中华民国 -0.37646 -0.063792 -0.91774 -0.24268 -0.069067 -0.74519 0.1137 -0.039051 -0.15958 -0.027148 -0.43968 -0.9182 -0.40058 -0.60538 -0.39053 0.25295 0.19072 0.11885 -0.34534 0.33989 -0.13352 0.13801 0.012965 -0.066952 -0.41481 -0.14145 0.094464 0.49252 -0.23173 -0.16041 0.69429 0.68023 -0.11454 0.35926 0.85041 -0.1148 -0.22698 -0.49333 -0.21415 -0.80672 1.5371 0.22052 0.053053 -0.048611 0.030645 -0.36229 0.43462 0.023949 -0.45955 0.61923 0.70858 0.90219 -0.33159 0.32881 -0.75274 -0.30928 0.62357 -0.50285 0.23742 0.25252 0.28197 -0.22559 -0.14937 0.52184 -0.13509 0.45675 0.79652 0.18747 0.4323 -0.29313 0.1729 -0.35832 0.097747 -0.33934 0.9296 0.48816 0.28362 0.012509 0.50954 -0.0047526 -0.43758 -0.094384 -0.67228 0.082768 -0.12086 0.93236 -0.65833 -1.2494 0.44214 0.47818 0.44689 0.37521 -0.0055585 -0.66174 -0.75296 0.4257 0.11977 0.39757 0.27127 0.0011212
公明 -0.13329 0.078413 -0.38241 0.085077 -0.50156 -0.060349 -0.18603 0.10347 0.52955 -0.059766 0.87606 0.13235 0.38093 -0.31461 -0.80857 -0.28303 -0.41069 0.80888 0.26936 0.01802 0.84526 0.093329 -0.12643 -0.30049 0.084951 -0.26896 0.83944 -0.74355 0.61279 -0.015245 0.35929 0.42603 -0.20015 0.65814 0.39386 0.17524 -0.37153 -0.28825 -0.31957 -0.19654 0.6076 0.66479 -0.78734 -0.46253 0.60453 -0.32338 0.60098 -0.21907 -0.26566 0.083527 0.45411 0.8085 -0.66372 -0.34277 -0.12409 -0.89793 0.36914 -0.4032 0.46537 -0.31628 -1.1264 -0.45681 0.51113 0.25309 -0.36686 -0.2746 0.2616 0.50656 0.24581 0.21108 1.1508 -0.28158 0.27297 0.36042 -0.060105 0.60052 -0.43369 -0.062369 -0.30125 -0.32227 -0.59045 0.41262 0.57184 -0.21271 0.2831 -0.57138 0.26298 -1.0401 -0.25163 -0.078361 1.1619 0.11384 0.78408 -0.87311 0.24874 -0.48669 -0.36779 -0.51143 0.40582 0.00020811
管控 -0.21476 -0.44244 0.40978 0.85264 -0.62632 -0.22327 -0.2605 0.31336 0.71232 -0.42416 0.14426 -0.72977 0.042842 -0.22905 -0.14965 -0.1334 0.73149 0.66753 -0.21285 -0.076492 -0.35035 0.45185 0.41243 -0.42546 0.71122 0.020667 0.70233 0.57692 -0.72546 -0.38551 0.65429 0.33594 -0.28858 0.27962 -0.027789 -0.56387 -0.04416 -0.57723 -0.12066 0.011397 0.90552 -0.18979 -0.55327 0.82005 0.29183 0.20598 0.078398 -0.64203 -0.10851 -0.33934 -0.4482 0.37753 0.25174 0.095373 -0.29928 0.13448 -0.33976 -0.053734 0.49663 0.011236 0.58791 -0.036386 -0.6088 0.13617 0.030651 0.21245 0.079621 0.016764 0.45627 0.71964 0.25509 -0.19705 0.34906 0.36118 0.56622 0.31929 0.93301 -0.26642 -0.45754 0.38283 0.27898 0.13546 -0.2037 0.16237 0.20194 -0.13596 0.099579 -0.73515 0.10321 0.48535 -0.34064 -0.097414 0.46403 -0.73544 0.88597 0.06371 -0.5781 -0.34495 0.30954 0.40901
全会 -0.8508 0.51861 -0.44273 0.081497 -0.70471 0.13144 -0.53446 -0.35516 -0.13129 -0.51542 -0.43917 0.30423 -0.13585 -0.95262 0.026129 -0.39604 1.1182 -0.17332 -0.11559 0.13769 0.12154 0.6812 0.086199 0.10947 0.51706 -0.094414 0.34669 0.2025 -0.34277 -0.095251 0.74825 0.73578 0.10788 -0.92054 -0.23553 -0.075074 -0.30153 0.01784 -0.39413 -0.28026 0.98765 -0.34681 0.23217 0.19438 -0.014293 -0.93857 0.12819 -0.57617 -0.59213 0.39664 -0.16771 0.23543 -1.5994 0.19318 -1.0058 -0.63765 0.12018 0.28634 0.73555 -0.5847 -0.079841 -0.30029 -0.16389 -0.27314 0.65456 0.49015 -0.37659 -0.26916 -0.063275 -0.1641 0.70658 -0.39666 0.029199 0.10767 0.16968 0.15306 0.16508 -0.4684 -0.056316 -0.82352 -1.1252 -1.1121 -0.28336 0.52371 0.2951 1.0153 -0.86573 -0.0055908 -0.10555 0.091773 0.14947 0.43069 -0.39472 -0.76048 1.2039 -0.51161 0.49271 -0.5664 -0.11193 -0.30773
存心 -0.17058 -0.41625 -0.39956 0.72162 -0.046969 0.62864 -0.41901 0.67035 0.23185 -0.082965 -0.20942 -0.36095 -0.24782 -0.40745 -0.072235 -0.4628 -0.1528 -0.36529 0.25693 -0.26987 0.028228 0.10367 0.83397 -0.46004 0.15552 0.56275 -0.01184 -0.41843 0.068284 -0.059138 -0.16641 -0.36807 -0.38371 0.081039 0.38193 0.43183 0.13925 -0.20647 -0.015456 0.049743 0.69045 0.6492 -0.80572 -0.15795 0.69846 -0.011569 0.51911 0.4076 -0.4124 0.23271 0.8829 0.27088 0.47184 0.44377 -0.11456 -0.51868 -0.29136 0.27065 0.29439 -0.14646 0.25136 0.52487 0.25725 0.050765 0.96345 0.78993 -0.64069 0.071029 0.29544 -0.17072 0.42087 -0.22834 0.3337 -0.033816 0.011278 0.29243 0.38842 -0.2701 -0.18071 -0.25736 -0.30573 -0.4196 0.27168 -0.29234 0.28376 -0.14335 0.19561 -0.42883 0.15175 0.34935 0.49402 -0.59127 0.9112 -0.79559 0.12979 -1.0426 0.06574 -0.55041 0.7394 0.15219
两句 0 0 0 0 0 0 0 0 0 0 0 0 0 0 0 0 0 0 0 0 0 0 0 0 0 0 0 0 0 0 0 0 0 0 0 0 0 0 0 0 0 0 0 0 0 0 0 0 0 0 0 0 0 0 0 0 0 0 0 0 0 0 0 0 0 0 0 0 0 0 0 0 0 0 0 0 0 0 0 0 0 0 0 0 0 0 0 0 0 0 0 0 0 0 0 0 0 0 0 0
落雨 -0.17189 -0.3264 -0.031406 -0.11194 -0.56571 -0.45787 -0.15432 0.1079 1.0445 -0.25701 0.89683 -0.66961 -0.55 -0.42658 -0.43594 -0.49066 -0.1042 0.79087 -0.78967 -0.60447 -0.097815 -0.088905 0.9531 -1.3077 0.54438 -0.48631 0.59068 -0.18176 0.6051 -0.13748 -0.62145 -0.44048 -0.87971 0.50286 0.43662 0.45253 -0.11913 0.026592 -0.10741 -0.26127 0.35653 0.2224 0.34792 -0.17443 0.065412 -0.61949 0.63864 0.22609 -0.90035 -0.56207 0.34934 -0.2229 -0.31803 -0.48601 -0.84699 -0.37666 -0.090215 0.3137 0.51114 0.022076 -0.44053 0.0041971 0.45676 -0.1234 0.516 -0.1019 0.080416 -0.036834 -0.034222 -0.015408 -0.067378 0.062638 0.093656 0.37158 0.12996 -0.078071 0.066378 -0.10536 0.32206 -0.097049 -0.38804 0.11428 -0.47473 0.24363 -0.18694 0.13271 0.17887 0.16966 0.0095829 -0.1869 0.4709 0.3862 -0.063772 0.011717 -0.6688 -0.33873 -0.51927 -0.22644 -0.61036 0.17645
抢钱 -0.18067 -0.29207 -0.50286 0.67642 -0.53011 0.36802 -1.2071 -0.0056223 0.28022 -0.35845 0.28446 -0.67302 0.042586 0.045629 -0.10464 -0.66116 -0.31374 0.53422 0.13858 -0.68956 -0.93323 -0.00050457 0.49805 -0.79927 0.21874 -0.69791 -0.095157 0.06366 -0.12358 0.29471 0.086668 0.64889 -0.61083 -0.043273 0.84221 -0.0069494 0.14058 0.32443 -0.17955 -0.19882 0.13659 0.73917 -1.315 -0.86727 0.1505 0.070105 0.54569 0.041684 -0.23619 -0.13977 -0.25712 0.080087 0.36 0.046928 -0.013586 -1.1643 -0.25698 -0.12849 -0.012257 -0.19324 -0.27531 -0.35705 0.15384 -0.081941 0.55363 0.17532 -0.36971 0.06533 -0.14858 0.18256 0.087462 -0.085409 -0.58987 -0.48583 0.37114 0.6739 0.53747 0.4544 -0.63064 0.19882 -0.22843 -0.83603 -0.31983 -0.33996 0.057989 1.0541 -0.18778 0.15498 -0.69404 0.066812 0.37686 -0.15124 0.27513 -0.0048928 -0.52444 0.61347 -0.38578 -0.56327 0.14777 0.77169
饭票 -0.34748 -0.10609 0.23052 0.34264 -0.039858 -0.16528 -0.3318 -0.5201 0.62738 -0.21835 0.2774 -0.89386 -0.21122 -1.1654 -0.086108 0.17691 -0.51364 0.18012 -0.3676 0.046748 -0.40886 0.5108 0.13724 -0.72867 -0.15909 -0.25312 0.034189 0.51877 -0.68895 -0.48314 0.35761 0.097726 -0.35989 -0.2366 0.23533 -0.15252 0.2724 0.005299 -0.86306 0.29926 0.34699 0.36968 -0.451 -0.23849 0.43269 0.49028 0.92635 0.0051087 -0.0073701 -0.014613 0.391 -0.31467 0.080219 -0.18314 -0.087882 -0.71426 0.81384 -0.32408 0.62672 0.28271 0.19436 -0.084461 0.63366 -0.46776 0.39568 0.049055 0.028067 0.086511 0.15955 -0.57507 -0.071657 -0.016117 -0.74096 -0.66568 0.18594 0.033449 0.31124 -0.032576 -0.23043 -0.35592 -0.2054 -0.30409 0.071647 -0.56934 -0.75365 0.19239 -0.34135 -0.46281 -0.44645 -0.15986 -0.76909 0.18714 -0.067104 -1.001 -0.41085 0.011729 0.68296 -0.11381 -0.17977 0.6866
流泪 -0.31607 0.12595 0.033208 -0.26658 -0.3785 0.010265 -0.13127 0.51474 0.085123 -0.19292 0.24707 -0.42473 -0.10662 -0.42088 -1.217 -0.4999 -0.14259 0.53628 -0.1347 -0.074278 -0.52837 -0.65872 1.0796 -0.87882 0.26041 0.10951 -0.014875 -0.028047 0.15846 -0.32266 0.19419 -0.42359 -0.61131 -0.85425 0.26411 0.64997 -0.11019 -0.43737 0.047069 0.19458 0.51326 0.15981 0.67286 -0.13571 0.04074 -0.067315 0.28965 0.43819 0.038612 0.42746 0.45312 0.55258 -0.060215 0.24296 -0.65436 -0.40373 -0.23513 0.76133 0.6096 0.38706 -0.20715 0.40391 0.14109 -0.56221 0.97489 -0.28429 -0.041996 -0.51211 -0.48205 -0.24139 0.4468 -0.063859 -0.012552 0.4967 -0.37463 0.31927 0.68959 0.30006 0.77678 0.44698 -0.75316 0.085041 0.27842 -0.74779 0.11455 0.14009 -0.17812 0.085982 -0.66526 -0.29758 0.41391 -0.23734 0.52595 -0.42653 0.086693 -0.0061991 0.057997 -0.48338 -0.014066 -0.38558
肺活量 0.16709 0.45535 0.34102 0.27305 -0.52491 0.05634 0.17446 0.040161 0.22321 -0.37997 0.064685 0.023444 -0.16162 -0.26379 -0.53246 -0.57188 0.36064 0.67272 0.35626 -0.14387 -0.15006 -0.68242 0.55952 0.29329 -0.39038 0.63047 0.27443 -0.38752 -0.7527 -0.048545 -0.27856 1.1768 0.23815 -0.49155 0.45312 -0.27956 0.26508 0.44371 -0.78949 -0.72974 -0.10174 0.6594 0.089688 -0.49565 -0.056573 0.10324 1.0132 0.30821 -0.068188 -0.5589 -0.096088 0.83285 -0.50023 0.52922 -1.0493 0.053078 -0.7079 0.28632 1.0518 0.61627 -0.39721 -0.55553 0.3433 -0.36203 0.15396 0.69723 0.35692 -0.30577 -0.67767 -0.16937 0.35033 -0.44896 0.19621 -0.052695 -0.030621 0.16444 1.3787 1.3619 1.1938 -1.21 0.89726 -0.94008 -0.92992 -0.59253 0.029609 -0.58388 0.14467 -0.39746 -1.1093 0.72287 0.0013091 -0.29336 0.24979 0.51716 0.4512 0.00079953 0.49795 -0.87164 -0.2321 0.055243
手柄 -0.26602 -0.4902 0.35372 0.07485 -0.85887 0.29806 -0.15177 -0.32874 0.17253 -0.6566 -0.41999 -0.90307 -0.20005 0.023386 0.40474 -0.85161 1.1139 0.46314 -0.34062 -0.046757 0.30333 -0.3952 1.0477 0.49503 -0.083249 -0.1451 0.61599 -0.91179 0.32671 -0.4261 -0.10573 0.74553 -0.38889 -0.23519 0.38104 -0.030649 0.12985 -0.43437 -0.26143 -0.01347 0.56107 1.3314 0.33867 0.31368 -0.11816 -0.089383 -0.082091 0.3259 0.23334 0.14222 -0.10594 0.31804 0.02179 -0.19821 -0.024435 -0.28463 0.39962 -1.0339 0.79289 -0.044289 0.29059 -0.54528 0.0161 -0.37707 0.82981 0.47326 0.17854 0.19688 -0.01945 -0.78104 0.087665 -0.77441 -0.31304 -0.12256 0.81605 -0.1475 0.35507 0.64847 0.71162 -0.2193 0.30785 0.40709 -0.14027 -0.16505 -0.80546 -0.47412 -0.20108 -0.36196 0.47538 -0.075153 0.4147 0.3289 0.017743 -0.55172 0.69308 0.63503 -0.52918 -0.51366 -0.9475 0.41369
老版 -0.19148 -0.17085 0.18922 0.092572 -0.12475 -0.12923 -0.074385 -0.69631 -0.15635 -0.74809 0.47196 -0.46974 0.12688 -0.2911 -0.57084 -0.50512 0.33644 0.70492 0.068116 -0.075001 -0.48837 -0.40182 -0.27659 -0.23595 0.54273 -0.55702 0.27549 0.18727 0.36075 0.34346 0.73041 0.43255 -0.017388 -0.21058 -0.086268 0.18384 0.65616 -0.35964 -0.47301 -0.41463 1.1154 1.199 -0.4665 -0.10648 -0.60056 0.16394 0.11234 -0.20139 0.11897 -0.89496 -0.16862 -0.16515 -0.23165 0.16523 0.042648 -0.80779 0.41764 -0.12986 0.17338 -0.49466 0.46703 -1.0592 0.44498 -0.42536 0.41363 0.072381 0.22903 0.23562 -0.3574 -0.36391 0.33178 0.40877 -0.10004 -0.74504 0.31342 0.3951 0.54803 0.53416 0.26042 -0.11552 -0.36728 0.015763 0.040678 -0.18389 0.22714 0.24834 -0.52438 -0.4102 -0.0015183 -0.6923 -0.058472 -0.43148 0.33857 -0.14803 -0.67445 -0.56746 -0.3055 -0.2381 0.26705 0.45646
电脑高手 0 0 0 0 0 0 0 0 0 0 0 0 0 0 0 0 0 0 0 0 0 0 0 0 0 0 0 0 0 0 0 0 0 0 0 0 0 0 0 0 0 0 0 0 0 0 0 0 0 0 0 0 0 0 0 0 0 0 0 0 0 0 0 0 0 0 0 0 0 0 0 0 0 0 0 0 0 0 0 0 0 0 0 0 0 0 0 0 0 0 0 0 0 0 0 0 0 0 0 0
循 0.21069 -0.49171 0.25126 0.18962 0.09051 0.28707 -0.050037 0.34453 0.66195 -0.5283 0.008958 -0.75607 0.057842 -0.31825 -0.66457 -0.19537 0.29572 -0.26906 0.19015 -0.24559 0.48178 0.032818 0.13373 -0.61762 -0.10634 -0.099757 -0.045447 -0.12232 0.065856 0.14244 0.10168 0.80127 0.10103 -0.91773 0.10219 0.14517 -0.13947 0.40435 -0.28673 0.063589 0.47611 0.059627 0.077138 0.24302 0.12276 -0.40938 0.53031 -0.31247 -0.90802 0.23862 0.12553 0.70526 -0.72026 -0.35206 -0.24772 0.090077 0.17474 0.0036906 0.0030048 -0.29888 0.021091 0.28509 -0.080821 0.11961 -0.17274 -0.094471 0.019441 0.12056 0.52134 0.076302 -0.50935 -0.0018195 0.00024986 0.18526 0.066056 -0.1787 0.45514 0.30326 -0.30091 -0.28613 0.39036 0.21524 0.58284 -0.17801 0.59347 0.33351 0.19059 -0.79096 -0.36346 1.0003 0.14655 -0.01254 -0.20754 -0.2025 0.17579 -0.72754 -0.32987 -0.28059 0.014027 0.48743
宇文 -0.23584 -0.013823 0.2268 -0.2546 0.10863 0.074416 -0.65428 0.3742 1.1175 0.21657 0.62134 -0.18385 -0.032953 -0.2986 -0.5642 0.057866 0.3457 0.13964 -0.25566 -0.34557 -0.022812 -0.56199 0.19968 0.20966 0.46943 0.20045 0.94076 -0.80245 0.61694 -0.77538 0.69265 0.82562 -0.39377 -0.49963 0.39912 0.29972 -0.2123 0.19041 0.54635 0.25067 1.066 -0.42576 -0.42675 -0.37982 -0.21652 -0.32035 -0.069571 0.19078 -0.7256 -0.27854 0.018268 0.28641 0.047343 -0.097162 -0.4886 -0.26469 0.28024 0.012482 0.68028 0.088844 0.18374 -0.17654 -0.022999 -0.72958 0.14326 0.65842 0.027884 -0.55248 -0.087357 0.56663 0.7045 -0.28082 -0.21298 -0.57867 -0.78242 0.58485 -0.54684 0.31376 -0.85427 0.2332 0.55718 -0.57342 -0.26653 -0.49833 0.60174 -0.38408 0.18899 -1.1862 -0.26257 -0.59494 0.20592 0.52299 0.26173 -0.7173 -0.30038 -0.58475 0.80095 -0.22802 0.81229 0.35164
厘米 -0.052717 0.15446 -0.53416 0.042797 -1.4027 -0.73415 -0.60649 0.10687 -0.24953 -0.4435 -0.75445 -1.1969 0.27261 0.55253 0.28308 -0.6363 0.36017 0.63953 -0.48584 0.97058 0.36127 -0.26033 0.65775 0.71962 -0.31887 -0.72749 1.1459 -0.15656 -0.36514 0.13556 -0.51604 0.53087 -0.20544 -0.23306 -0.016467 -0.35366 0.89516 -0.38975 -0.59029 -0.12026 0.21462 0.64943 0.38875 -0.25961 -0.010565 -0.98877 0.43368 -0.23407 -0.72852 -0.57217 -0.21709 0.078345 0.22761 1.2318 -0.083118 -0.48008 0.28172 -0.32226 1.3709 -0.13788 -0.050377 -0.1759 0.98438 -0.083601 0.42005 0.31798 0.87165 -0.62988 0.68268 0.33942 0.47097 -0.45638 0.22645 -0.52388 -1.6034 0.59184 0.050072 0.015571 0.63462 0.056467 0.57114 -0.20903 -0.085831 0.025661 0.17565 -0.44372 0.55319 -0.94859 -0.25432 1.28 -0.16187 0.088971 0.085487 -0.0083255 0.27337 -0.3994 0.090491 -0.14367 -0.25142 0.31361
信佛 -0.046771 -0.53428 0.52909 0.77293 -0.34355 0.21869 -0.063785 0.11709 0.084529 0.1482 0.78811 0.3191 -0.10979 -0.52809 -0.45859 -0.7146 -0.44997 -0.59785 -0.19249 0.10201 -0.2249 -0.052049 0.75399 -0.19029 -0.061456 -0.11343 0.14119 0.12414 -0.096968 -0.051914 0.0047014 0.032754 -0.2286 -0.20397 0.47079 0.14362 -0.14221 0.4306 -0.57808 -0.39165 0.64694 -0.054516 -0.61578 -0.097547 1.048 -0.58566 0.65629 0.30463 -0.32931 -0.059586 0.87352 0.5236 -0.15311 0.3865 -0.23374 -0.19852 0.53088 -0.24942 0.44395 0.69131 0.071405 0.038747 -0.14048 0.42081 0.96798 -0.062272 -0.17672 -0.24838 0.4411 -0.15671 0.96146 -0.36012 0.43759 -0.35115 -0.40982 0.30171 -0.10529 0.017537 0.26051 0.10219 -0.18706 0.086716 -0.026155 -0.097321 0.39842 0.35877 -0.15285 -1.292 0.29811 -0.36493 0.51969 -0.28176 0.52215 -1.0553 -0.38985 -0.14752 0.24181 -0.083922 -0.053261 -0.0052078
看pcb 0 0 0 0 0 0 0 0 0 0 0 0 0 0 0 0 0 0 0 0 0 0 0 0 0 0 0 0 0 0 0 0 0 0 0 0 0 0 0 0 0 0 0 0 0 0 0 0 0 0 0 0 0 0 0 0 0 0 0 0 0 0 0 0 0 0 0 0 0 0 0 0 0 0 0 0 0 0 0 0 0 0 0 0 0 0 0 0 0 0 0 0 0 0 0 0 0 0 0 0
明治维新 0.78753 -0.05734 0.064001 0.048143 -0.57544 -0.38035 -0.31803 0.057814 -0.27459 -0.33945 0.016567 0.48867 -0.43559 0.053451 -0.39474 -0.11932 0.35198 0.64928 0.52456 0.94351 -0.6161 0.15249 0.44787 -0.43166 -0.54305 0.25847 0.14009 0.063144 0.27879 -0.46549 0.20835 0.53428 0.21697 0.32536 0.49076 0.17833 0.13287 0.40397 0.07759 0.13927 1.2931 0.14707 -0.78771 -0.60627 0.16101 -0.95179 0.52253 0.057917 -0.88371 0.55765 0.59323 0.53474 0.10407 -0.39144 -0.62792 -0.82646 0.40458 -0.05767 0.59715 0.34873 0.52082 0.085013 -0.71245 0.27707 -0.06492 0.46263 0.36882 0.35609 0.068171 -1.1628 -0.30246 0.42164 -0.11196 -0.25409 0.68125 0.098338 -0.2175 0.38766 0.071834 0.17561 -0.17358 -0.33723 -0.23269 -0.24289 -0.27308 0.086503 -0.43838 -1.41 -0.38828 0.58654 0.49756 0.37927 -0.21862 -0.62958 0.36556 0.17092 -0.084161 0.87815 -0.194 0.69736
恭喜 -0.56524 0.31142 -0.216 0.27609 -0.16279 0.071072 -0.74343 -0.38909 0.40352 -0.21364 0.3897 0.28254 0.42153 -0.028234 -0.75461 -0.45572 -0.078294 0.36815 -0.26676 0.098085 -0.14364 0.46102 0.16576 -0.94249 -0.39225 -0.059962 0.21812 -0.40956 0.36304 -0.50984 -0.066825 -0.041314 0.14231 0.17492 0.4618 0.5249 0.21693 -0.2299 -0.17609 0.3989 0.082812 1.8127 -0.22564 -0.41303 0.11863 -0.19697 0.96775 -0.00051449 -0.010797 -0.02398 0.040734 0.47298 0.19028 -0.44649 -0.62093 -0.2779 0.20739 -0.16964 0.97597 0.4461 -0.23996 -0.0013329 0.47419 0.061586 0.62459 0.1866 -0.20364 -0.22252 0.43525 0.0095636 -0.019263 -0.20231 -0.030899 -0.097471 0.35049 0.1234 -0.10625 0.035236 0.26685 0.1992 0.27317 0.095815 0.10637 -0.078221 0.36517 0.66975 -0.55248 0.19963 -0.32022 -0.037831 -0.012814 0.38798 0.79035 -0.64133 -0.17187 0.2797 0.64848 -0.81891 -0.22017 0.25403
同事 0.030929 0.59715 -0.52318 0.6596 0.18484 0.18648 -0.09706 -0.17346 0.23227 -0.38543 -0.063156 -0.72216 -0.11255 -0.24268 -0.31747 -0.15242 -0.34874 0.14045 -0.42026 -0.43848 -0.33749 0.189 0.76953 -0.23147 0.3048 0.15589 -0.15637 -0.12629 -0.11552 -0.58884 0.42386 0.32146 -0.58771 -0.51263 -0.61767 0.13843 -0.23484 0.47384 -0.061371 -0.39728 0.22497 0.35664 -0.29015 -0.014892 0.16407 0.38931 0.23355 0.18992 -0.1855 0.04636 -0.18721 0.40068 0.4506 0.57477 -0.09364 -0.75435 0.40099 -0.14803 0.6176 0.38438 0.45212 -0.16132 -0.19886 -0.51962 0.25147 -0.22343 -0.19984 -0.41093 -0.44771 0.1821 -0.028245 0.43232 0.12281 -0.19096 -0.004603 -0.16274 -0.16651 0.11558 -0.41302 -0.35068 0.0038285 -0.46764 -0.35705 -0.70146 0.31521 0.30937 -0.42449 0.37276 0.06189 0.22268 0.10551 -0.22113 0.84347 -0.41581 -0.031792 -0.1989 0.16561 -0.33991 -0.094928 0.54748
建国门 -0.47671 0.19083 -0.8357 -0.25715 -0.061463 -0.68706 -0.48125 -0.0054514 0.64452 -0.21372 0.20202 -0.77453 0.53933 -0.92214 -0.91856 -0.46759 -0.22094 0.63341 -0.1191 0.33387 0.00034824 -0.27798 1.1706 -0.30193 -0.43778 -0.76878 0.085841 -0.55687 -0.083844 -0.68082 -0.16185 0.48894 0.28277 0.24825 0.15539 -0.31723 0.12483 -0.39555 0.40896 -0.19578 1.0186 0.42004 -0.8118 0.89949 -0.26141 -1.2237 0.87334 -0.64748 0.14533 0.42994 0.24815 0.087327 -0.79263 0.089892 -0.24497 -0.55475 0.42712 -0.23706 -0.021832 -1.0257 0.45648 0.48653 0.54008 -0.28443 0.60391 0.26684 0.10904 0.71525 0.30597 0.53205 -0.54328 0.51596 -0.6354 0.22054 -0.35527 0.25238 -0.30406 -0.082521 -0.23637 -0.239 -0.16449 0.29422 -0.86863 -0.030052 0.3461 -0.77081 -0.55461 -1.0481 -0.022432 0.43422 0.20772 -1.0696 0.60629 -0.65208 -0.17605 0.047814 -0.0024855 0.037062 0.38756 0.16922
搜 0.35795 0.46924 0.34957 0.15128 -0.19915 0.093444 -0.32486 -0.38347 0.10286 -0.1711 0.39909 -1.1238 -0.01953 0.46851 -0.60193 0.20214 0.078072 -0.031715 -0.77953 -0.28358 -0.14037 0.091751 0.11541 -0.32265 0.41844 -0.35785 0.45524 -0.73126 0.15033 -0.29599 -0.62591 0.9016 -0.92601 -0.42933 0.78267 -0.040391 -0.11504 -0.14939 -0.3555 -0.32676 0.55276 0.52247 -0.30108 0.028548 -0.25109 -0.0010774 0.47059 0.031684 -0.66049 -0.30558 -0.39637 0.48307 -0.30432 0.057902 0.84011 0.27343 0.0933 0.192 0.33227 -0.31297 -0.23521 0.62065 0.35903 -0.31585 0.8468 0.60359 -0.52455 -0.041264 0.78795 0.73911 0.033877 -0.67704 -0.18359 -0.26775 0.67064 0.28706 0.28208 0.40186 -0.98189 -0.2169 -0.19447 -0.17738 0.011637 -0.1186 0.67154 -0.14122 -0.25711 -0.26582 -0.37461 0.18939 -0.34607 -0.035468 0.65158 -0.66523 -0.013137 -0.16812 0.09237 -0.089783 0.080737 1.0428
佛 0.10863 -0.40707 0.35375 0.57594 -0.66607 0.51699 -0.39417 0.030548 0.67411 -0.20848 0.050447 -0.13836 0.082978 -0.40755 -0.063468 -1.0274 -0.69026 -0.27165 0.00098723 0.53311 -0.077113 -0.21034 -0.020769 -0.10233 0.71827 -0.018012 0.65198 -0.65122 -0.31124 -0.49436 0.2923 0.39722 -0.47532 -0.55893 0.18081 -0.48276 0.43177 0.22366 -0.025985 -0.47031 0.57105 -0.15536 -0.2852 -0.10906 0.23795 -1.0479 0.50786 0.51773 -0.34368 0.19976 1.1457 0.58047 -0.3005 0.21369 0.0079787 -0.21632 0.063431 -0.32525 -0.34432 0.5706 -0.34086 -0.16941 0.20747 0.14173 0.45979 -0.39255 0.48737 -0.24909 0.48771 -0.092866 0.68205 -0.66097 0.40309 -0.22599 -0.1059 0.016687 0.036566 -0.32763 0.48307 0.24092 -0.37915 0.65991 0.23035 -0.035065 0.77217 0.27201 -0.34623 -0.92787 -0.6339 -0.5549 0.55186 -0.33856 0.53093 -0.22508 -0.1643 -0.27094 0.16544 -0.21127 0.11886 0.27997